Language model created by QuickLM on Fri Jan 26 17:20:39 EST 2024
Copyright (c) 1996-2010 Carnegie Mellon University and Alexander I. Rudnicky

The model is in standard ARPA format, designed by Doug Paul while he was at MITRE.

The code that was used to produce this language model is available in Open Source.
Please visit http://www.speech.cs.cmu.edu/tools/ for more information

The (fixed) discount mass is 0.5. The backoffs are computed using the ratio method.
This model based on a corpus of 3 sentences and 6 words

\data\
ngram 1=6
ngram 2=7
ngram 3=5

\1-grams:
-0.8653 </s> -0.3010
-0.8653 <s> -0.2374
-1.3424 CHROME -0.2374
-1.3424 FACEBOOK -0.2374
-1.3424 HAYAT -0.2374
-1.0414 OPEN -0.2596

\2-grams:
-0.7782 <s> HAYAT 0.0000
-0.4771 <s> OPEN 0.0000
-0.3010 CHROME </s> -0.3010
-0.3010 FACEBOOK </s> -0.3010
-0.3010 HAYAT </s> -0.3010
-0.6021 OPEN CHROME 0.0000
-0.6021 OPEN FACEBOOK 0.0000

\3-grams:
-0.3010 <s> HAYAT </s>
-0.6021 <s> OPEN CHROME
-0.6021 <s> OPEN FACEBOOK
-0.3010 OPEN CHROME </s>
-0.3010 OPEN FACEBOOK </s>

\end\